#include "custom_coefficient.hpp"
using namespace dl;

namespace custom_coefficient
{
    const static __attribute__((aligned(16))) int8_t sequential_conv2d_biasadd_filter_element[] = {
            35,    -26,    -50,     13,     28,      7,      3,     20,     51,    -60,     15,     47,    -34,     48,    -35,    -49,     20,    -34,     33,    -53,    -24,    -22,    -17,    -34,     46,    -29,    -49,     38,     41,     26,     53,      3,    -31,    -34,    -55,     59,     39,    -37,     -4,     25,     24,    -12,     12,     45,     -8,    -59,    -49,     36,     24,     -1,     25,    -17,     -5,     35,    -46,      7,     49,     -8,    -23,     37,    -40,    -19,    -27,     54,     22,      5,    -63,     54,     11,     38,     34,     -4,     18,     26,    -15,     45,     25,     36,     25,     30,    -11,      8,     -9,    -24,    -36,     22,     17,     50,     35,     35,    -27,    -11,    -20,    -52,    -56,    -30,    -33,     22,    -23,     22,    -54,      1,     54,    -50,    -29,     38,      2,     21,     52,     39,     56,      9,    -54,     27,     30,     58,      4,     -9,     26,     51,    -19,     46,    -36,    -58,     29,    -48,     10,     -8,     -7,    -40,    -36,    -30,    -65,     63,     35,     57,     -3,    -53,    -53,      1,      0,     21,     35,      2,      8,     47,     11,    -14,      1,     49,     32,     25,     48,    -63,      7,     52,    -28,     38,    -49,    -27,     19,    -23,    -15,     -4,      8,      0,     36,    -45,     26,     39,      7,     28,     16,    -22,    -41,    -32,     -9,     10,    -23,    -60,     50,     49,    -48,    -15,    -49,     20,     29,    -47,    -53,    -48,     31,     49,      3,     -5,      7,    -53,    -12,     50,    -18,     51,    -31,    -65,      0,     49,    -30,     -5,    -36,     39,     26,     51,    -43,     13,      4,      2,    -60,     38,     38,     16,      7,    -36,    -20,    -22,     14,      3,     18,    -43,      9,    -12,    -53,     -3,     22,    -48,    -35,    -57,    -51,      8,      5,    -52,     14,     10,    -12,      2,     13,     -4,    -18,     49,    -47,     24,     -5,      3,     31,     14,    -20,     -2,    -37,     34,     34,    -10,    -72,     21,    -42,     22,    -49,    -39,    -34,    -38,    -15,     12,    -28,     48,    -39,     55,    -29,      2,    -32,     10,    -22,    -38,    -53,     51,      3,    -43,     42,     29,     14,    -36,     27,     21,     43,     49,     30,     38,    -46,    -21,     29,    -29,     -8,      8,    -46,     17,    -16,      2,     28,     19,    -52,    -35,    -38,      2,    -21,    -41,     -7,      9,     30,    -37,     -7,    -45,     51,    -52,    -26,      5,    -63,     37,     44,    -10,    -43,     56,     35,    -38,    -24,    -62,     -3,     17,     13,     45,     19,      4,    -47,    -15,     -4,     55,    -40,     27,     57,     40,    -28,    -54,     52,     52,     10,     28,     48,     34,     26,     34,    -35,     14,     21,     -2,    -58,     27,     23,      4,    -35,    -22,     47,    -25,     -6,    -47,    -25,     15,     17,     34,    -33,     58,    -29,     35,    -21,    -46,     -3,    -23,    -35,    -45,    -45,     17,    -50,      9,    -31,    -10,    -51,    -22,     10,     22,    -43,    -63,     12,    -40,     21,      9,     11,    -47,     -6,     29,     -1,    -41,     12,    -46,    -33,     20,    -18,     37,    -34,     59,     36,     17,     43,     48,     49,    -17,      8,    -19,     41,      4,      1,     36,    -25,     21,     -1,     42,    -54,    -55,     38,    -35,    -19,      2,      4,      3,      5,    -50,     28,    -42,     42,     -7,     28,    -24,      8,     47,     33,    -38,    -19,     28,    -60,    -45,     47,     62,      9,     57,     12,    -17,      7,     50,     46,    -26,     -6,     11,     12,     43,    -32,      0,    -63,     19,     53,      9,     -4,     26,      7,    -16,     10,     47,    -24,     39,     -2,     33,    -41,    -38,    -55,    -22,      9,      6,      9,    -59,    -61,     55,     30,    -30,    -40,     33,     48,    -53,      3,     37,    -63,     60,    -41,    -60,    -42,    -14,      7,     50,     50,     29,     37,    -21,
           -50,     18,      6,     21,     38,     55,    -39,     35,    -19,    -60,     46,     -2,    -16,    -48,    -23,     56,     42,    -19,    -41,      3,    -55,    -45,    -21,    -38,    -17,    -59,    -22,    -46,     18,    -51,    -31,     56,     47,    -27,     39,    -47,    -45,    -37,    -21,      3,    -58,    -55,      9,    -48,    -22,    -45,    -15,     -3,     50,    -35,    -76,      7,    -25,    -36,     45,    -39,    -39,     28,    -32,     34,     19,    -30,    -39,     -8,     -8,     27,    -67,     45,    -11,     58,     -1,     32,    -53,     49,      9,      3,    -29,    -36,    -59,     33,    -58,     29,    -39,     31,     -7,     -9,     16,     -1,    -40,    -53,    -47,     47,      4,     29,    -55,     55,      0,     12,    -60,      6,     19,    -12,    -23,     16,    -30,     -9,    -13,     30,     24,    -23,    -32,     60,     23,     21,     39,    -35,    -43,     37,     21,    -38,      8,    -10,    -14,    -15,     49,     13,     -2,      0,    -36,    -14,     -1,     27,     32,     -5,    -56,    -10,     12,     14,    -26,     36,     36,     33,     37,      2,    -13,     14,     25,     -1,    -53,     48,     53,     30,     19,     11,    -43,     18,     13,     32,     11,     -9,     33,     53,     -6,      3,      2,    -37,    -18,      3,      2,     33,     34,     24,     -7,    -46,    -55,     53,    -29,    -29,    -72,    -55,     39,    -33,     46,    -47,    -12,    -52,     27,    -45,    -48,     56,    -12,     62,    -47,    -45,    -55,     51,    -60,    -50,     -2,    -12,     11,    -37,    -11,     11,     28,    -24,    -26,    -41,     23,    -51,     -5,    -25,    -25,    -13,    -44,     30,     36,     -9,     52,     37,     32,    -37,     -4,    -43,    -18,     -3,    -34,    -10,     43,     26,     49,    -17,     24,     22,    -20,     44,      5,     33,      3,    -48,    -29,      0,    -60,      7,    -29,     -5,    -23,     -8,     18,    -55,    -53,    -35,    -58,    -24,    -60,     20,     38,      9,     18,     40,     16,     51,    -57,    -36,     33,     30,     -1,     49,    -46,    -36,    -53,     44,    -45,    -22,     40,    -21,     36,    -36,    -47,    -56,     -1,     23,     25,     49,    -13,     33,    -58,     44,     17,     43,    -34,     -9,      0,     19,     35,     13,    -56,     20,     35,     56,    -34,    -16,     44,     22,     14,    -37,    -47,     32,    -36,     18,    -43,    -45,     54,     25,    -59,     54,     18,     -9,    -39,      9,     21,    -56,     31,    -51,     -5,      8,      8,    -20,    -54,    -38,    -14,     -6,     31,    -53,    -37,     -1,     36,     22,     25,      0,     25,    -22,     24,     45,     12,    -30,     -2,     -5,     -1,     -2,    -38,     13,    -12,    -57,     36,    -54,     31,     47,     56,    -16,     33,    -10,    -36,     41,    -45,     -2,    -34,     29,    -45,    -48,    -16,     43,     34,    -31,    -10,     -7,    -16,    -55,    -22,    -11,    -52,     51,    -15,     19,     14,    -15,     -6,    -16,     -4,     62,     47,     40,    -45,    -63,    -40,     37,     12,     -9,      4,    -12,    -17,    -32,      2,     49,    -14,     28,      0,     52,     -9,    -67,     32,     19,    -19,    -28,      8,    -23,      4,    -26,     44,    -10,    -11,     11,    -53,    -17,     -1,    -56,     19,    -27,     50,     -6,    -26,     -6,     20,     45,    -50,     15,    -45,     49,     19,     -7,     18,      0,      4,      3,      4,    -14,    -48,     50,     -2,     36,     13,     21,    -42,     13,    -56,     23,    -35,     35,      9,    -21,    -55,    -38,    -59,    -16,      8,     -6,    -64,    -32,    -44,      8,     13,     56,     33,    -20,     14,    -39,     23,     14,    -44,     45,    -59,    -25,    -76,     22,    -10,     21,     -7,     64,     -5,    -31,    -18,    -10,    -11,     -5,     -9,    -24,    -34,    -33,    -64,     -1,     27,    -19,    -39,     16,    -57,     28,    -15,     18,      5,     32,    -51,    -28,
           -17,     39,     28,    -45,      3,     40,    -35,     11,     13,     32,    -54,    -26,    -26,    -43,    -61,     49,    -23,    -46,    -52,     33,    -25,     -5,    -50,    -22,      1,      7,      0,    -34,    -28,     19,    -49,     49,     30,     47,     17,     37,     26,     47,     -6,     19,    -17,     34,     22,     33,    -15,    -56,      9,     -1,      8,      1,     20,     22,     15,      4,    -52,    -46,    -12,     19,    -17,     42,      1,     30,    -49,     -6,     23,    -41,     14,     52,    -65,    -44,    -33,    -25,    -12,    -23,      0,     48,     12,     34,     16,     47,      7,      4,     20,     -7,      3,    -14,     21,    -52,     34,     50,    -47,    -17,     35,     52,    -33,      6,     50,    -29,    -61,    -32,      7,     11,     -3,    -20,     14,     30,     31,    -42,    -21,      2,    -23,    -43,     19,    -27,    -18,     47,    -58,     43,     49,     -6,    -57,     20,    -51,    -48,      7,     -4,    -15,    -20,    -49,     56,    -65,     20,     37,     60,    -43,     44,    -56,     15,      9,    -11,    -48,     20,    -51,    -53,     36,     38,     -2,     35,    -50,     44,    -48,     48,     55,    -28,    -31,      8,      6,     24,     50,    -50,    -44,     48,    -39,    -47,     44,     50,     13,     39,     12,    -39,      9,     38,    -44,    -28,     24,     21,    -24,     26,    -45,    -53,    -23,    -20,    -55,    -48,    -50,    -52,     52,    -28,     43,     54,     38,     50,      9,     19,     35,     18,    -52,     43,    -18,    -27,     41,     -1,    -46,    -29,    -30,     -9,     50,      2,     39,     35,    -12,      1,     51,    -43,    -24,    -27,    -11,    -56,     49,     48,    -34,     51,     45,      1,    -39,     46,    -67,     21,     10,    -32,     30,    -53,    -49,    -12,     29,    -35,    -47,    -36,     54,      5,     36,      6,     -4,    -37,    -25,     28,     37,     37,     -5,     44,     -9,    -46,     37,    -52,    -34,    -36,    -32,     19,    -70,      8,    -41,     64,    -28,    -37,     46,    -66,    -53,     21,      2,    -48,    -23,     28,    -60,    -24,    -39,     11,      1,     39,     52,    -37,     44,    -36,     47,    -13,    -53,     52,    -59,     44,    -30,    -27,    -73,    -16,     -8,    -26,    -37,     61,     -6,    -60,    -19,     21,      3,     22,    -36,    -48,    -62,     30,    -43,      9,     -6,    -23,     35,     57,      7,    -70,     10,     14,    -23,    -52,     30,    -19,     28,    -27,     40,    -27,     35,     35,     -2,     16,      5,    -13,     15,    -23,     37,     45,      4,     22,     17,    -44,    -68,    -49,     30,    -28,     38,     -3,    -21,    -33,    -35,     24,      1,     41,    -36,     18,     28,     -5,    -43,    -61,    -61,    -45,     -3,    -54,     50,    -58,    -46,    -43,     18,    -13,    -46,     31,     12,    -42,      0,     26,    -60,    -10,     30,    -42,     51,    -54,    -45,     45,    -21,     22,     54,     -5,      9,    -17,     40,    -18,     13,     24,    -11,     14,    -45,    -33,    -22,    -31,     47,     42,    -11,    -44,     38,     28,    -19,     49,      0,     23,     43,     17,     30,     24,    -39,     51,      0,    -26,    -57,     24,    -47,     16,     40,    -38,      3,     16,    -24,     32,     25,     38,     45,     52,    -40,     54,     17,     26,    -54,     -8,    -24,     59,      1,     29,     -4,    -18,    -19,     40,     16,    -33,     -7,    -35,    -43,     43,    -31,      2,    -51,    -55,     41,     52,    -50,     23,     12,    -66,    -15,    -31,    -50,     21,     34,      7,      1,      2,     32,      5,     46,     15,    -36,     38,    -28,     18,     -3,     12,    -15,    -18,    -18,     11,    -56,    -40,    -67,     54,    -40,    -36,     12,     29,    -44,    -16,    -40,     35,    -13,     -3,     55,     -5,     15,     29,     29,     -9,     -4,      2,     34,      3,      4,      2,     43,    -22,    -56,     21,     17,    -27,
           -57,     52,    -25,    -44,    -40,    -39,     -7,     57,     11,      2,     21,    -40,    -38,     56,     -2,    -41,      5,      6,     -7,    -13,      8,    -20,     -9,     62,    -58,    -44,      8,     13,     18,     11,    -56,     55,     -4,     43,    -13,    -54,     49,     12,      6,      4,    -14,    -47,    -28,     26,     15,    -18,      2,     50,    -59,      8,     22,     15,    -32,     51,     39,     49,    -26,     14,     52,    -29,     46,     10,     20,    -11,    -41,      8,      3,    -11,    -44,     48,     29,     45,      7,    -22,     51,     18,     39,    -34,    -20,     -3,    -50,     36,    -51,     15,    -45,     27,    -31,     47,    -61,    -34,     42,     13,     15,    -25,    -36,     59,      0,    -61,    -47,      7,    -14,     27,     57,     -8,     30,    -40,    -38,    -36,     44,     23,    -45,     57,     49,     18,     43,     24,    -52,     55,    -10,     10,    -19,    -52,     29,    -40,     44,    -43,     13,     34,     50,     53,     36,    -32,    -43,     16,     27,    -32,    -53,     32,    -16,    -33,    -29,     14,     39,     67,    -57,    -44,     -5,     34,     51,    -44,     22,    -63,    -57,      5,     38,     58,     48,     -6,     34,    -15,    -48,     23,    -58,    -55,     28,     44,     47,    -19,     14,    -58,    -30,     -5,    -21,     43,     38,    -34,     43,    -53,     10,    -44,      9,     24,     46,    -59,     32,      6,      1,    -13,    -12,     27,    -47,     51,     -5,      3,     11,     11,     13,     33,     -3,      0,     35,     36,     20,     36,     36,    -61,     52,    -15,     41,      0,     57,     47,    -19,     31,     37,     57,    -20,     22,     17,    -33,     11,     50,    -22,     12,      8,    -14,    -28,     33,     51,    -58,    -58,     -9,    -49,     55,      6,     54,     20,    -15,     13,    -41,     14,     25,     55,     23,     -5,    -20,     31,    -32,     65,    -50,    -48,      8,     34,    -28,     43,    -45,    -39,     38,    -22,     20,     -2,     55,    -41,     21,     34,    -24,    -44,     16,     28,    -25,    -53,     28,    -59,     15,     47,    -40,     33,     43,     43,    -46,     55,     19,     19,     -3,     17,     20,     38,     56,    -26,     29,    -44,    -38,    -58,    -49,     44,    -37,     10,     23,     39,     -9,    -40,     19,     31,    -49,     53,     25,    -53,    -48,    -59,    -10,    -23,     23,     39,    -37,     29,    -32,      6,      3,    -19,    -24,    -22,    -16,    -54,      5,    -53,     51,     27,    -55,      8,    -32,      3,     26,     -3,    -29,     30,    -36,     25,    -22,    -32,    -59,     -5,     -7,     25,     25,    -19,    -45,    -53,     52,     10,     53,    -53,    -32,     34,     27,    -25,    -33,    -27,    -60,     55,    -50,     40,     53,     50,    -47,     39,     21,     15,     11,     44,    -39,     27,     36,    -56,     47,    -26,    -47,     -7,    -19,     21,    -30,    -33,    -29,    -33,    -43,     39,    -18,     25,      5,     16,     18,    -11,    -15,     14,    -38,     20,    -19,     44,      3,    -43,     42,     61,     49,     49,      5,    -50,     54,     45,     -1,     36,     37,     43,     -3,     26,    -10,     39,     18,     30,     34,    -45,     26,     50,     39,     50,      1,     57,     29,    -60,     34,     57,    -26,    -38,     55,    -23,     41,    -34,    -52,    -26,    -53,     51,      4,      3,     51,     43,     28,    -45,     47,    -37,     30,     49,    -24,     -7,     16,    -43,    -38,    -18,    -30,     -6,    -45,     26,    -23,    -18,    -21,     10,      9,     16,    -36,    -32,     41,     16,    -12,    -37,     -2,    -54,    -35,     13,    -40,     -7,    -58,     28,     43,     -3,    -13,     33,    -34,      8,     17,     36,     18,      8,     28,    -33,    -33,     44,     21,    -11,     24,      3,     45,    -47,      6,    -57,    -58,    -20,      3,    -41,    -10,     18,    -18,     10,     48,     43,     20,
            15,    -33,    -51,    -21,    -47,     -2,     12,    -46,    -51,    -40,    -30,     35,     39,      6,    -34,    -56,     23,    -26,     15,      4,     53,    -29,     35,    -46,      0,     54,     -6,     49,    -44,     -8,     34,    -16,    -19,    -50,    -44,     32,      5,    -33,    -52,    -34,     21,     -4,    -59,    -37,     18,    -38,      0,     38,    -47,     33,     30,    -32,    -14,    -45,    -22,     19,    -53,    -35,     -3,    -25,    -36,    -44,     53,     55,     23,    -51,     49,    -53,    -54,    -46,     16,    -30,     11,     47,    -16,     37,     20,    -17,     36,    -17,    -46,     51,    -16,     49,    -12,     52,     49,    -28,    -16,     24,     26,     49,    -11,    -34,    -51,     44,     52,     32,     53,     34,    -52,    -47,     32,     34,     28,    -17,     24,     21,    -43,    -33,     -5,    -42,    -20,     -8,    -55,     46,     53,     -8,     -7,     51,    -19,     -6,     28,    -47,     26,    -48,    -49,     41,     47,    -56,    -14,     21,     52,    -23,    -20,     29,      8,     27,      6,    -19,     -6,     10,     46,    -38,    -27,     -9,    -34,      8,    -14,    -55,     35,     -7,     42,     32,     50,     53,     54,    -30,    -42,      9,    -27,    -11,     -3,    -41,    -60,    -29,    -15,    -41,    -37,     14,     -3,     30,     -6,    -57,    -52,    -36,    -11,     32,    -31,    -23,    -37,    -49,     -5,     16,    -35,     45,    -56,    -52,    -59,    -14,    -27,     48,     53,     17,      0,     44,    -53,    -52,     43,      7,     14,     33,     13,     40,      1,     32,    -19,      5,     36,     42,    -42,    -18,     39,    -52,     -6,      4,     -6,     33,    -42,    -41,    -49,    -19,      5,     28,    -20,    -41,    -49,    -55,    -50,     47,    -56,     38,     38,     49,     45,    -43,     54,     44,      1,    -45,     24,     58,     39,     47,    -48,    -57,     31,      3,     43,     38,     -9,    -51,     11,      1,     -3,      8,     28,    -11,     -7,      4,    -36,      1,    -50,      5,     -5,     22,     38,      8,    -24,    -17,    -11,    -59,    -14,    -36,    -52,    -22,     37,     15,    -35,     29,     27,     54,    -61,     17,     31,    -37,     44,     12,    -19,     33,    -23,    -31,     40,    -21,    -42,    -30,      8,    -13,     33,     -9,     53,    -55,     36,     38,    -13,     22,     36,     -5,     14,    -51,    -11,    -47,     18,     19,     46,     21,    -45,     -3,     34,     -9,     27,     38,    -27,    -22,     52,    -61,      1,    -23,    -24,      7,     36,    -22,     -7,    -20,     15,    -14,    -33,     52,     20,    -51,    -29,    -26,    -11,    -43,    -16,     33,    -18,    -46,      1,     14,      0,     34,     20,     -8,    -44,     40,     26,    -30,     32,    -53,     -6,    -28,     44,     18,    -35,    -27,    -49,    -30,    -11,    -26,     37,     39,     55,    -45,      6,     47,     10,     15,     47,     27,     29,     -6,    -35,      1,     58,     14,    -39,     18,    -37,    -58,    -46,     24,    -23,     34,    -12,      9,      9,     34,     49,    -31,    -47,    -47,     31,      5,     44,     35,     20,     45,     16,     36,      3,     33,     24,    -56,    -13,    -46,    -51,    -39,    -43,     22,     23,      0,    -60,    -52,    -18,     50,    -36,    -26,     48,    -17,    -56,     40,    -32,    -34,    -42,    -57,    -45,    -63,    -36,    -20,    -47,      2,     15,     -7,     21,    -36,     16,     37,    -40,     46,     53,     52,    -13,    -19,    -40,    -58,    -27,     58,     40,     -1,     52,    -56,     28,     38,    -15,    -49,     -8,    -61,    -60,     42,     42,     52,      9,    -42,    -36,     18,     15,     53,    -14,      0,    -38,    -38,     -5,    -55,     32,      1,    -43,     40,     36,      9,    -58,      2,    -23,    -25,    -28,     47,    -30,     46,    -48,    -31,      9,    -41,     48,     24,    -45,      2,    -35,    -37,     13,     27,     49,     26,
           -47,     46,    -11,      6,    -42,    -45,     54,    -61,    -43,      4,     25,     -7,     -7,    -48,    -52,    -26,     39,     57,    -44,    -26,     34,    -35,     23,     37,    -28,     34,     16,    -15,     30,     23,     52,    -39,    -53,    -58,     27,     24,     39,     53,     11,     52,    -14,     -7,     40,    -15,     20,    -52,      5,     27,    -54,     10,      5,    -17,     57,    -32,    -11,     26,      0,      5,     40,     43,    -51,     32,    -51,     24,      6,     32,     12,     54,     53,    -61,    -53,    -21,     61,    -32,    -32,     18,     12,     27,     35,    -26,    -10,    -29,     -6,    -47,      2,     26,     38,      4,    -34,    -19,     -9,     -9,    -26,     36,    -25,     42,    -47,    -53,    -58,     -4,      6,     12,    -32,    -32,    -54,     10,     -1,     44,    -26,     50,    -29,    -14,    -20,     20,     14,    -22,    -45,     28,    -58,     20,      2,     33,     39,     40,    -26,    -51,      2,    -38,     14,     25,     29,     36,     40,    -63,     42,    -54,    -18,     28,     32,     24,    -29,      0,     19,     23,      4,     -9,    -29,     30,     40,     42,     26,     43,    -49,     14,      0,     18,     20,     45,    -23,      6,    -56,    -22,    -19,     55,      5,     -3,    -60,    -18,     60,     47,    -18,     53,      3,    -41,     30,    -46,     37,     29,     30,     45,    -10,     -3,    -20,    -35,    -18,     15,     40,    -31,     21,    -16,    -63,     23,     50,    -18,     10,     40,      1,    -62,    -55,    -14,      8,    -18,     45,    -14,     35,     32,    -26,     26,    -12,    -26,    -52,    -54,    -41,    -57,      5,    -49,     28,     20,    -60,     28,     46,     24,    -41,      0,     -6,     39,     -4,    -37,     35,     27,    -38,     28,      3,      2,     15,     16,    -35,     54,     34,    -10,    -38,     36,     57,    -56,     38,     26,     18,    -27,    -39,    -41,    -63,    -52,    -38,     47,    -27,     31,    -13,    -30,     23,     -5,      2,    -63,     18,    -55,     19,     13,     38,     49,    -50,    -46,    -23,     15,     16,     -9,     45,     44,    -53,    -42,    -55,    -52,    -37,     17,    -31,    -33,      4,     35,     48,     19,    -26,    -24,    -42,    -32,     19,    -35,    -41,     36,    -44,     60,     18,      6,    -45,     -3,     12,    -34,     -1,    -42,    -51,     19,     31,    -63,    -48,     55,    -58,     13,    -41,     24,    -28,    -10,     22,      7,    -15,    -45,     48,     12,    -27,    -50,    -13,     51,     53,      6,    -42,     14,     56,    -62,    -17,    -54,     11,    -55,    -56,     19,     24,    -56,      4,     14,     11,     47,     -5,    -54,     50,    -59,     31,     54,     -7,     37,    -35,     14,    -41,     37,     54,     24,     21,     17,     25,    -20,     45,    -22,    -11,     35,     11,    -20,     28,      0,    -28,    -29,    -39,     31,      4,    -53,     19,    -26,     17,     15,     43,     48,    -54,    -58,    -55,    -47,     35,    -38,     53,     15,    -33,    -35,    -18,    -22,     32,    -11,     -7,    -47,     31,     34,    -42,     32,    -15,      0,     27,     51,    -33,    -16,     13,    -53,      9,    -43,      3,      8,    -37,     49,     45,    -35,    -48,     18,     -1,    -27,    -19,    -11,     11,    -41,     58,     56,    -55,      6,      4,     -5,    -58,    -25,    -22,     28,     36,     11,     14,      4,    -48,    -31,    -32,     18,    -20,      7,     35,    -12,    -17,    -44,    -43,     -3,    -12,     50,     27,     12,     -2,     44,     -3,     -5,     22,     53,    -29,     10,     25,     10,    -54,     36,     -9,     37,    -48,      4,     14,      9,     25,     55,    -40,     17,    -24,     19,     23,     42,     16,    -56,     42,      9,     27,    -48,     -9,     55,     32,    -44,      5,    -41,     14,     38,    -16,     18,      3,     11,     29,     12,    -25,    -44,     40,     37,    -10,     52,     -4,    -47,
           -27,     46,     20,     45,     -6,     43,    -56,    -47,     35,     48,    -43,     48,     49,     29,    -44,    -26,     -1,      1,    -31,     29,     43,     27,    -16,     24,    -35,    -26,     25,     34,     25,     51,    -36,     50,    -45,    -17,     32,    -30,    -42,    -17,    -21,    -48,     51,    -44,    -27,     21,     51,    -15,    -58,     18,     37,      1,     33,     44,    -43,     -4,    -19,     13,     24,    -36,    -36,    -50,    -11,     49,    -42,      0,      5,     10,    -21,    -48,    -49,     50,     -1,     42,    -44,    -17,     35,      2,     10,     26,     -2,    -14,     12,     41,     36,      6,     46,     11,     -5,    -50,     -1,     57,    -11,    -55,     -2,    -21,    -42,     30,      1,    -46,    -25,     18,     -2,    -36,     57,     20,     50,     21,    -40,    -15,    -23,     29,    -15,    -44,    -51,     -7,     34,    -25,     32,    -58,     37,    -41,    -41,     41,    -13,     -3,    -41,     -2,    -32,     44,    -49,     22,    -17,    -24,     54,    -11,      2,     51,     22,      4,    -59,    -28,      4,    -61,      9,     50,    -60,    -14,    -41,     48,     17,    -26,    -58,    -36,     16,     -6,    -23,     57,     40,     33,     44,    -44,    -33,    -58,     45,     13,     49,    -45,    -41,     35,    -43,    -20,    -26,     47,    -59,     39,    -17,     12,     24,      1,    -19,     26,    -42,     -4,      8,     48,    -36,    -50,      0,     13,     -8,    -54,    -52,    -28,     -6,     55,     -9,     31,     44,     32,    -28,     20,    -18,    -55,    -12,    -58,     24,     34,    -34,    -23,     36,    -20,    -24,     20,    -10,    -17,    -59,    -21,     21,    -11,    -37,     29,    -17,    -21,    -17,     12,     32,     -4,     10,     -9,     14,     10,      3,     46,     43,     22,    -16,     -8,     -7,     48,    -33,    -50,    -13,     39,    -30,      9,    -19,    -62,      1,    -56,     41,     22,    -54,    -56,    -33,     52,    -53,    -22,      0,    -27,     -5,     38,     25,     -3,     10,     17,    -43,     59,    -15,    -47,     -2,     -3,     47,     -9,     18,     14,    -40,     -4,    -45,     34,    -36,     48,    -29,     -9,      9,     -8,    -43,    -41,    -28,      6,     52,     19,     57,     31,     24,    -49,      5,    -33,     37,     34,     30,     -5,     55,     40,      7,    -16,     53,     -6,     26,     10,     17,     34,    -38,    -41,    -27,      0,     41,    -40,    -53,      1,    -21,    -42,    -48,      2,    -32,    -55,    -34,    -45,    -24,    -35,     40,    -37,    -61,    -55,     25,     48,    -29,    -60,     48,    -13,     49,    -48,     43,      0,    -38,     24,     -3,    -14,    -61,      6,    -30,    -55,     26,     38,     34,     19,     40,     12,     55,    -14,    -12,      1,      2,     21,     31,      1,    -40,    -37,    -31,    -38,      2,    -15,    -36,     38,     10,     24,      3,     28,    -24,    -32,     -5,     25,     34,      9,     39,     39,    -48,    -35,      9,     48,    -45,    -36,     -3,     15,     -6,    -14,     30,    -34,    -18,    -58,    -57,     -3,      9,     -9,    -42,     40,    -34,    -41,      8,     -4,     33,     18,    -36,     24,     58,    -48,    -37,    -20,    -21,    -20,    -41,    -10,    -29,    -11,     28,    -33,    -49,     53,     -9,     38,     29,     25,    -46,     38,    -44,     58,     -7,     51,    -47,    -22,      1,    -29,     29,     45,     52,     14,    -36,    -37,     16,    -22,     31,    -13,    -25,     20,     12,     51,     22,      3,    -47,    -22,    -34,     31,     51,     30,     24,     -4,    -44,    -52,     22,     29,     56,     15,    -48,     63,     54,    -51,     39,     38,     47,     33,    -30,      3,    -37,     39,     10,     -6,     54,     28,     32,     56,     47,    -32,     10,     49,     56,     50,     46,     26,    -11,     -8,     17,     50,    -13,     28,    -37,    -50,    -55,    -21,    -35,     46,    -13,     -5,     35,    -37,
           -13,     50,    -20,    -44,    -30,     35,    -39,    -30,     39,     29,    -14,      7,     36,    -42,     39,    -43,     39,     28,    -33,     -4,    -19,     27,     50,     53,    -56,    -10,     35,    -14,     15,    -36,     33,    -16,     24,     -8,     44,    -26,     20,    -34,     -2,     11,    -10,    -50,     52,    -57,     38,    -54,    -14,    -21,    -23,    -48,    -29,    -33,    -36,    -22,    -37,     62,     13,    -23,     20,    -53,    -32,     50,     45,     -5,     -7,    -57,     33,    -46,     24,     -2,     54,     -2,    -34,     36,     48,     39,    -55,    -39,     -1,    -24,    -11,     -4,    -13,     12,    -14,    -29,     38,    -10,    -19,     10,    -18,     39,     37,     34,    -30,    -56,     -9,    -25,    -29,     19,    -14,     44,     37,     48,    -24,    -11,    -35,    -14,     34,      4,     35,    -12,     39,    -44,    -21,    -37,     24,     16,    -37,     40,     56,     34,    -53,    -24,     51,      8,    -61,    -41,     -2,     42,     25,    -39,     22,     27,     54,    -41,    -44,      2,    -10,      4,     53,    -15,     36,     16,     23,    -46,     -5,     40,     21,    -63,    -43,     31,    -36,      4,     39,    -41,      1,     13,      8,    -48,     55,     48,     13,    -50,     13,     -7,    -43,     14,    -55,    -12,     47,     41,    -25,    -10,      0,     42,     32,     32,    -55,    -31,     36,     33,    -30,     38,    -49,    -13,     44,     -1,    -49,    -36,    -19,     57,    -10,    -23,     20,    -21,     -9,     17,    -49,     35,     54,     32,    -21,     53,    -11,      7,     22,    -22,     16,     11,     16,     21,     41,     54,     45,    -15,      0,    -26,      4,     14,    -10,    -33,    -58,     14,    -57,    -55,     40,      7,     48,     24,     40,     24,    -55,     -8,      1,    -39,    -49,     52,      7,      6,    -60,    -43,     44,     13,    -15,     46,     31,     37,     -8,      6,     37,     26,     -3,    -23,     36,     60,    -17,     58,     36,    -30,     16,    -14,    -12,    -12,    -55,     34,     21,    -53,    -33,    -30,    -22,    -24,     21,     25,     20,     34,    -59,     39,    -46,    -10,     44,     55,    -29,     32,     50,    -50,    -32,     49,     11,     50,     32,     -9,    -19,    -19,     29,      1,     15,    -24,     -5,     27,     32,     26,     28,      8,      8,     10,    -16,     42,     -8,    -13,     12,    -18,    -10,     25,     31,     -2,     -4,     36,     27,    -42,    -16,     30,     40,    -37,    -56,     50,     24,     -6,     -9,     42,     21,    -16,    -41,    -22,    -17,    -22,     47,     -4,      4,     33,     10,     55,     -2,     -3,     35,     18,     25,    -16,      5,     40,    -39,     11,     49,    -60,     -3,     30,    -49,    -58,     20,     40,    -39,      8,     -7,    -26,    -39,     20,    -57,     10,    -36,    -38,     49,    -24,    -42,     -6,      9,     40,     49,     46,    -30,    -34,     51,     59,     17,    -32,     22,    -56,    -48,    -55,      1,    -56,     10,      6,    -43,     47,    -55,    -36,     -9,     13,     -4,    -35,     44,     32,    -63,    -47,     -8,    -63,     31,    -31,    -20,     46,    -42,     41,     58,     21,    -30,    -16,    -24,     32,     34,     34,     43,    -29,    -14,     20,    -59,     16,    -32,    -16,    -16,     55,    -11,     23,     15,    -55,      7,     -7,      2,     15,      1,     59,      6,     14,    -26,    -16,    -50,     15,    -32,    -40,    -49,    -20,     33,      5,    -32,      9,     59,    -21,    -39,    -37,     16,     -2,    -49,    -29,     31,    -50,    -35,     48,    -41,    -40,     51,     -7,     49,     -9,    -57,    -47,     53,    -46,     36,     11,     -2,     61,    -37,     22,     -3,      2,      8,    -53,    -40,      6,    -51,      5,    -22,     33,     47,    -41,     -5,     56,    -41,     30,     55,     41,    -39,    -46,    -31,    -13,    -27,    -12,    -59,    -48,    -40,     -5,    -35,    -15,
           -19,    -11,     44,    -19,     43,     60,    -49,     -5,    -58,    -27,    -51,    -56,    -35,     11,     21,     40,     -9,     28,     46,     -7,    -44,    -52,    -31,     29,     32,    -11,    -47,     24,    -35,    -52,    -57,      3,     33,      6,    -32,     45,     53,    -23,    -43,     49,     10,    -59,    -28,     -2,    -35,     36,     -8,    -37,    -22,     41,     21,    -17,     -1,    -10,    -55,     32,     11,    -47,     12,     51,     45,     -8,     24,     27,      7,    -25,     27,     54,      4,     44,      0,      5,    -37,     32,    -60,     49,    -13,    -49,     38,     29,    -37,      3,     36,     -5,    -44,     47,     28,    -40,     39,     21,    -46,    -53,     51,    -26,     26,    -40,     17,     18,      7,     12,    -54,     10,     61,     42,     -9,     19,    -56,    -29,     51,    -36,     44,    -30,    -21,      3,    -12,    -38,      0,    -41,    -12,     48,     23,    -20,    -57,     31,     26,     32,    -33,    -56,    -49,    -41,      2,    -56,     24,     19,     -3,     29,    -31,     53,     21,     -1,    -55,    -35,    -68,     51,     44,    -30,    -33,    -30,      8,    -64,     60,    -33,     42,     39,     36,     41,    -24,     39,    -61,     -6,     22,     54,    -39,    -33,     34,     32,     30,     57,     -7,      2,    -63,     17,     40,     -2,    -28,     52,     41,    -18,    -11,    -54,    -36,     39,     42,     46,    -56,     52,     36,     13,    -27,    -24,     -2,    -41,    -18,    -59,    -44,      2,     28,     -7,    -51,     46,    -44,    -20,     39,     34,     15,    -14,    -20,    -46,     -1,      6,    -53,     47,     10,     22,      9,     19,     31,    -28,     46,    -19,    -19,    -32,    -10,    -38,     33,    -54,    -24,     57,    -40,     11,     27,     -1,     -6,    -52,    -52,     22,    -30,    -22,      8,    -48,     -3,      6,     30,     18,     39,      0,     35,    -39,     41,     -7,    -21,    -10,    -44,    -29,    -58,     23,     24,     29,     57,     24,    -48,     36,     -2,    -34,    -15,    -27,    -41,      3,     52,     55,    -19,    -17,    -18,      6,    -49,    -26,    -24,     16,     45,     38,     40,     15,     46,    -24,    -17,     30,     15,      2,      5,     56,      9,     26,    -36,     20,    -26,     62,    -41,    -44,     -8,     23,     30,     41,     20,     10,     48,     45,    -12,     28,     25,     -7,     -7,     45,     48,     33,    -16,     12,     27,     37,     -8,     58,    -20,    -30,      0,     21,     32,     -4,     37,     55,    -53,    -17,    -14,     44,     -6,     -5,    -24,    -46,    -28,    -35,    -23,     49,    -13,     20,    -17,    -30,     26,     51,      3,     37,      9,    -18,     32,      4,     39,     28,    -12,    -28,     49,    -26,     39,    -25,     13,     23,     21,     44,    -15,    -15,    -17,     43,     47,      9,     50,    -18,      0,      6,    -17,     39,     -2,    -19,    -15,     38,     32,    -42,    -35,     50,    -21,     34,    -14,     25,     -5,    -32,    -53,     16,     27,    -48,    -19,    -43,     40,     -9,    -47,    -45,      4,     21,     12,     -2,    -24,      0,     56,    -12,    -61,    -53,    -28,    -34,    -45,      6,     20,     51,     47,    -55,     33,     11,    -47,    -62,     -1,     35,      3,    -47,    -34,    -66,     48,    -53,     -7,     40,     53,    -18,     -9,    -23,     41,     29,     15,    -41,    -54,      8,    -50,      5,    -16,     27,    -68,     51,     -9,      3,    -40,     -7,     18,     32,    -55,     68,     -1,     19,      9,    -45,      8,    -57,    -43,     53,      8,     39,     14,    -29,     27,    -33,    -44,     34,    -29,     -7,     40,    -28,     19,      9,    -18,     36,     46,    -41,     -8,     -6,     44,    -42,    -30,      6,     30,     35,     49,    -36,     56,    -38,    -44,     -7,     10,      5,     10,     25,     33,     -3,     35,     -5,    -34,     18,     47,     -3,    -19,     17,     28,    -61,
            -9,    -38,    -53,     -7,    -25,     56,     16,    -30,      2,     52,     52,    -14,    -48,     -7,    -19,    -44,     50,     26,    -13,    -33,    -36,     43,      3,    -33,     -5,     18,    -46,     57,     49,    -42,    -60,      9,     33,     21,    -18,    -28,      9,    -19,    -36,     42,     21,    -41,    -54,     50,     -8,    -29,    -36,     31,     30,    -12,     16,     16,    -42,     15,    -49,     -5,     51,     -5,      7,    -41,      9,     39,    -31,     -8,    -12,     51,    -36,     22,     18,     -6,    -33,     30,     21,      8,    -51,    -23,     34,     -9,    -32,     -3,    -30,    -44,    -19,     53,    -58,     35,     22,    -13,    -32,    -54,    -57,     57,     23,     21,     33,     32,     43,     -7,     -4,      0,     23,      8,     46,     27,    -24,     31,     35,    -16,     -3,     44,    -62,    -37,     18,    -30,     13,    -33,     52,      8,     32,    -40,    -47,     55,     31,     37,      3,     57,     19,     41,    -46,    -28,     30,    -49,    -45,     48,    -25,     37,    -11,     30,      2,     34,     19,    -26,      8,     53,      0,     35,    -39,     16,    -31,      1,    -38,     17,     -5,      6,     24,     31,    -43,    -32,    -61,     17,     39,    -19,    -49,    -43,     50,    -33,     -1,     46,    -28,      7,    -61,    -57,    -52,    -58,      6,     36,      9,    -57,      8,     -8,    -59,    -24,    -34,     65,     30,    -52,     40,     -2,     56,     23,     -8,     33,     15,     -8,     25,    -23,    -40,     26,     57,    -23,    -62,    -39,     47,     22,    -50,     56,     -6,     26,     -2,     -9,     47,      8,     -4,    -17,    -19,    -24,    -52,     45,     53,    -17,    -52,     30,     25,     45,     13,    -32,    -58,    -36,     27,    -44,    -44,    -34,    -19,    -42,     -5,    -31,     26,     -2,    -58,     40,     32,      0,      0,    -34,     60,    -37,    -14,    -16,    -55,     -5,    -27,    -32,     16,     24,    -53,    -26,     36,    -42,    -15,     33,     58,    -42,    -45,     -6,    -10,     23,    -56,     45,     19,    -57,     -5,    -18,    -24,    -13,     18,    -50,     56,    -15,     48,      6,    -39,     52,    -38,    -57,    -24,    -10,     14,     12,    -60,    -30,    -29,    -26,     29,    -40,     57,     44,     -4,    -23,    -43,    -20,     36,     20,    -23,     12,      8,    -34,     45,     59,     50,     53,    -41,     14,    -30,     -8,     22,    -41,    -39,     49,      9,     -2,     27,    -55,     47,     50,     -4,     30,      8,     25,     43,    -49,    -33,      4,     -3,     32,     20,    -40,     36,    -23,     32,    -58,    -56,      4,     36,     49,     13,     29,      7,     15,     40,    -51,    -37,     33,     21,    -18,    -14,    -12,    -25,     11,     35,     58,    -50,    -57,    -42,    -23,    -56,     12,     30,     51,     40,    -42,     24,    -16,    -45,     49,    -29,    -25,    -28,    -28,      3,    -44,     32,     15,    -62,     55,    -58,     51,     -3,    -29,     19,    -19,     46,    -31,      7,    -46,    -16,    -39,     30,    -30,     18,    -19,     -4,     -4,     16,     48,    -51,    -41,     -4,    -23,    -17,    -46,     47,     41,     53,    -28,    -41,    -47,    -60,    -28,     27,    -44,     18,      4,    -19,     48,     48,    -51,    -49,    -13,    -18,    -32,      1,    -11,    -21,     53,     21,    -51,     25,    -31,     39,    -18,    -34,     17,     38,     40,    -33,    -39,      0,     47,     27,    -28,    -22,     43,    -34,    -30,    -41,    -29,      9,    -30,     51,     25,     12,     55,    -37,      9,     18,     58,     48,    -34,    -25,     18,    -42,     44,    -52,     50,     19,     38,    -32,    -40,     -4,     27,     -6,     46,     -9,    -50,     26,    -32,     10,      5,     29,    -10,      7,     28,    -25,     59,    -26,    -41,    -11,    -37,    -26,     43,     45,    -63,    -23,      8,     52,     50,     37,      8,     43,      4,    -43,     15,
           -39,     13,    -44,    -43,     19,    -59,    -23,    -24,     -5,    -31,    -26,     52,     40,     22,     29,     33,      7,    -33,    -40,    -15,    -36,     48,     21,    -38,     54,    -27,     36,    -59,    -48,     15,    -57,     22,     11,    -12,    -30,    -38,      3,     49,     -1,     11,     -8,     19,     41,    -36,     -5,    -11,     43,     36,     48,     10,     51,     21,     16,    -32,    -11,     67,     -7,    -27,     28,     12,     62,      5,    -73,    -44};

    const static Filter<int8_t> sequential_conv2d_biasadd_filter(sequential_conv2d_biasadd_filter_element, -10, {6, 6, 3, 48}, {1, 1});
    const Filter<int8_t> *get_sequential_conv2d_biasadd_filter()
    {
    	return &sequential_conv2d_biasadd_filter;
    }

    const static __attribute__((aligned(16))) int8_t sequential_conv2d_biasadd_bias_element[] = {
             0,     -1,      0,      0,      0,     -1,      0,     -1,      0,      0,      0,     -1,     -1,      0,      0,     -1,      0,      0,      0,     -1,      0,      1,      0,      0,      1,     -1,      0,     -1,     -1,      0,      0,     -1,      0,      0,     -1,      0,      0,      0,      0,     -1,      1,      0,      0,     -1,     -1,      0,      0,     -1};

    const static Bias<int8_t> sequential_conv2d_biasadd_bias(sequential_conv2d_biasadd_bias_element, -6, {48,});
    const Bias<int8_t> *get_sequential_conv2d_biasadd_bias()
    {
    	return &sequential_conv2d_biasadd_bias;
    }

    const static __attribute__((aligned(16))) int8_t sequential_conv2d_1_biasadd_filter_element[] = {
            -6,    -37,     23,    -52,    -41,     55,     -1,     33,     40,    -16,    -35,     46,      7,    -31,     18,     -9,     43,     36,    -27,     32,     22,     26,     -8,    -36,     -6,     42,      5,    -37,     19,    -24,    -16,      4,     -5,     27,     18,    -45,     -1,     49,    -37,    -17,    -19,    -17,      5,     48,    -32,    -20,     50,    -35,     15,    -10,    -33,    -43,     22,     18,    -34,    -29,    -13,      0,     26,     -9,     25,     47,    -25,     -8,      3,    -37,     42,    -25,     44,     17,    -13,    -34,    -15,    -36,      0,      1,    -49,     28,    -13,     35,     30,     -4,     14,    -23,     -1,    -18,     43,     29,    -36,      0,     21,    -48,     -4,      4,     26,    -30,    -45,      7,     15,    -52,     28,      7,     33,    -44,     50,     30,     53,     -3,    -52,    -50,     20,    -24,     51,    -26,     37,     10,    -18,    -49,     26,    -43,    -24,     36,     41,    -16,    -38,      9,    -43,     16,     -6,    -24,     34,     30,      2,     48,    -17,    -49,     37,     46,     17,     28,      8,    -33,     49,    -43,    -47,     54,      0,     33,    -10,    -14,     -3,    -41,    -21,     38,    -22,     15,    -13,     20,    -26,     10,     -5,      7,    -24,     28,     -3,     32,     33,    -19,      2,     53,     56,     12,      3,     47,      7,    -27,     41,    -17,     54,     16,     31,    -30,     42,      4,    -17,     -6,      9,      7,     25,     12,      4,     10,      1,    -44,    -20,    -25,     -8,     37,     19,     -3,    -24,    -38,    -17,    -32,     18,    -12,    -51,     13,      8,    -25,    -34,     -9,     44,     39,     -4,    -25,    -30,     -3,     21,     26,    -13,     14,     -6,     14,     28,     -9,      1,      2,     -7,     51,    -36,    -36,     10,     26,     44,    -24,     35,     17,     -2,    -38,     22,     -8,    -11,    -25,    -48,     33,     44,    -17,     37,     24,    -34,     31,      1,     22,     29,    -22,     12,     17,    -35,     31,      1,    -46,    -36,    -40,      4,    -39,    -30,    -10,     54,     13,    -32,    -32,    -20,    -39,     41,    -34,     43,      9,    -41,     -4,     44,     17,     40,     -4,     24,     43,    -12,     22,    -51,     54,      9,    -49,    -20,     -9,     45,     15,     39,    -10,    -35,     46,    -27,     20,      8,    -26,     32,    -35,     49,    -14,     24,    -53,     44,     17,    -18,     11,     24,     -2,      6,    -22,    -33,    -29,    -30,     28,      5,    -32,    -37,      0,     11,     -9,      8,      9,     12,     15,    -24,     14,     22,     20,     14,     -2,    -49,     10,     45,     22,     28,     10,     10,     38,    -19,     47,     38,    -26,    -19,      6,     10,     14,     -1,    -20,     25,    -27,      8,    -37,     48,    -21,     21,    -35,    -27,    -35,     11,     25,     -1,      3,      7,     19,     -9,      5,     34,     29,      7,     31,     21,    -34,     -6,     26,     -8,      0,     -6,    -19,    -24,    -13,    -14,     49,     13,    -36,    -17,    -38,     31,    -26,     17,      7,      4,     28,    -34,     15,     29,     17,      8,    -55,      5,    -12,     35,     42,      6,      8,     -9,     -2,     20,     38,     -8,    -34,    -45,     -4,    -54,    -12,     27,     37,    -10,     -9,     20,    -12,     21,      5,     43,    -27,      5,     -9,     -4,     -4,     32,    -10,    -12,      1,     19,     44,     42,    -34,     34,    -39,    -40,     40,    -21,     -4,     16,     25,    -44,    -13,     -6,     41,    -48,     34,     24,    -12,    -25,      6,     36,    -30,     28,     -4,    -38,      4,     -2,    -11,    -25,    -50,     46,    -10,    -31,     -2,    -33,     53,     -5,      9,    -23,     34,     35,     10,     14,     14,    -45,    -22,     28,    -20,    -39,     20,    -21,     17,      9,    -18,     14,    -14,      4,     23,     32,    -28,     -6,    -34,     -8,     38,     43,     24,     24,     19,    -51,     22,
           -28,     26,     17,    -23,     12,     27,    -18,     47,      0,      3,     26,      2,      6,     48,    -21,     -6,    -41,    -23,    -34,     44,    -32,     39,    -14,      5,    -19,    -24,     13,     -9,     26,     -8,    -16,    -13,     -7,    -16,    -39,     24,    -25,     27,     19,      0,    -29,    -22,      4,     26,     46,    -22,    -44,    -29,     36,     32,     42,    -29,     30,      9,    -25,    -11,     14,      8,      3,    -20,    -27,    -23,    -18,     17,    -49,    -10,      4,    -35,      1,     29,    -41,      5,     29,     34,    -14,     -2,      4,     38,     -8,      3,      3,      2,     -5,    -14,     23,    -30,    -39,    -29,     18,    -23,     12,     50,    -18,    -34,    -15,    -16,    -27,     41,     35,    -23,    -25,      5,    -30,    -41,    -47,      1,     14,    -35,     31,     -1,     43,    -12,    -10,    -17,     12,    -13,    -38,    -54,     16,     11,    -23,      0,     23,    -34,    -13,      6,     -4,    -54,    -46,     42,     -3,    -27,     20,     33,     -9,     22,    -19,     38,    -47,     -2,    -43,    -23,    -19,     18,      0,     -9,     -8,    -18,     47,     20,     -6,     -2,     43,      3,      5,     31,     10,    -15,     19,     -7,    -23,     37,    -12,    -29,    -30,    -17,    -16,     10,    -29,     53,     -3,     32,    -10,    -39,     46,    -18,    -11,    -16,     31,    -16,     26,     23,     40,     11,    -34,    -10,    -28,      8,     44,     17,    -51,    -31,    -33,     -6,     33,    -29,      5,    -24,     46,    -10,    -26,     -6,     49,     -9,     24,    -19,     33,    -41,     28,    -20,    -43,      6,     22,    -28,     -5,    -10,     -5,     12,     25,      1,     -1,     -6,    -11,     46,     -8,     28,    -25,     -8,     14,    -30,      4,     -6,     34,    -23,     53,     24,    -43,    -16,     12,    -28,     19,     26,     -8,     13,     40,    -52,      5,      5,    -31,    -15,      1,      7,     34,     -9,     35,    -28,     -9,    -23,     36,      2,    -33,      0,    -27,     -8,     33,     32,     17,    -29,     47,    -36,     17,    -30,     -6,     27,     11,    -30,     37,    -27,      2,    -12,    -18,    -27,     22,     33,      1,    -17,    -10,     29,    -46,     49,     28,      8,     -7,    -44,     25,    -12,      3,    -17,    -12,     31,      8,    -18,     12,     26,      3,     -1,     36,      9,    -40,    -19,      5,    -57,     20,     47,     25,     54,    -43,    -10,    -26,     24,    -36,    -32,     45,     34,     29,    -17,    -31,     42,      4,    -11,      9,     -8,     -1,    -15,     22,     45,     16,     21,     -9,     10,    -41,    -37,     22,    -17,     20,     43,    -10,    -26,     18,     12,     10,    -42,    -16,     32,     21,    -29,     51,     -2,     30,    -32,    -25,     31,     -8,     41,    -10,     16,    -38,     24,     36,    -16,    -15,     21,     -2,     10,     13,     -1,     33,     13,      2,    -33,     17,     37,    -26,     10,    -10,      4,     18,    -37,     -8,     28,    -18,     16,    -29,    -29,    -22,     22,     45,     43,    -33,     34,    -46,     19,     22,     44,    -34,    -19,    -46,     14,      3,    -32,     14,     55,     24,     14,    -19,    -32,    -28,     34,     -8,     -6,    -23,    -11,     42,      3,     33,     54,     26,     57,     20,     21,    -30,     31,    -12,    -48,     44,     46,     34,     26,      7,    -45,     45,    -10,     46,    -47,     26,    -45,     33,    -53,     -1,     29,     48,    -28,     32,     10,    -31,    -33,    -29,    -25,     16,     27,     39,     50,     -2,     21,    -18,    -35,     49,     41,    -33,     17,    -43,     31,     12,    -17,     36,    -22,     25,     14,    -20,      3,     13,     -2,    -38,     31,    -31,     17,     17,     -7,    -24,     27,     15,    -17,     13,    -11,    -38,     16,     27,    -52,     54,    -13,     21,     -7,    -10,     31,      5,    -13,    -22,    -33,      9,     -1,     -9,    -27,
           -48,      1,    -16,    -10,     54,    -27,      8,     36,     21,    -22,     -2,     -5,     41,     41,    -20,      5,      3,     38,     52,    -42,      7,     14,      7,    -19,      5,    -22,    -25,    -11,     -4,    -31,     19,     -3,    -46,     40,     11,      8,    -22,     38,    -17,     42,     48,     50,     25,    -14,      0,     34,     13,    -20,      3,     42,     23,      1,      3,      0,    -10,     26,     -1,    -36,     48,    -43,      8,    -32,     31,    -23,     47,    -25,     36,     42,     55,     27,     12,     40,    -33,     45,     37,     51,     -8,    -37,    -25,      2,     19,     41,     45,     20,     -9,    -38,    -30,     16,     48,      9,     50,     10,    -39,      2,    -27,    -15,    -49,     12,     27,     -8,     -1,     55,     -9,     37,     18,      2,    -28,    -31,     -1,     -2,     35,     38,    -16,      9,     45,     29,     52,    -10,    -42,    -40,    -33,    -30,    -12,     34,      5,    -16,     -2,    -25,     -5,     33,     49,    -20,     28,     39,    -29,     -6,    -36,     -1,    -31,     53,    -20,     13,     -1,    -43,     26,      9,     53,     35,    -29,    -45,    -42,      9,     13,     -8,    -29,     14,     41,     15,    -38,    -45,    -20,    -29,     19,      8,     -9,    -29,     34,    -45,     -7,     25,    -37,     -5,    -28,     34,    -29,     44,     26,     31,     -5,    -27,    -52,    -39,    -10,     42,     29,    -31,     -1,    -15,     36,     20,    -13,     29,     16,    -40,     48,     35,      7,      9,    -43,     -5,     11,     44,     42,    -26,     44,     15,    -34,     19,     45,     -9,     38,      1,    -11,     14,     -7,     15,     -3,     12,     59,     12,     36,      2,     35,     16,    -45,     10,     45,     43,     14,    -28,     26,     10,    -14,     -5,    -15,    -19,    -25,     50,     33,     -8,     53,    -41,     10,    -14,    -42,    -18,     25,     -8,     43,     17,     28,    -30,     11,    -20,    -62,    -50,     28,    -45,     -6,     11,    -46,    -38,    -10,     41,    -30,    -19,    -15,     13,    -24,     35,     -6,     37,     32,     27,    -18,    -14,     -7,    -29,     28,    -30,     24,    -30,    -38,    -33,     52,      3,     29,     29,     -6,      3,     41,     -9,    -31,    -11,    -27,    -46,    -39,     32,    -47,     30,      9,     33,     -9,    -23,    -36,     16,     -8,    -17,    -32,     17,     49,     21,     36,     43,    -25,     12,     22,    -24,    -33,    -47,      8,     44,     15,     12,    -18,    -28,      0,     40,     -7,     23,     47,     12,     25,     32,    -42,     51,     40,    -23,     25,      5,    -32,     36,     17,     -7,    -33,     47,     33,    -35,    -14,    -22,      8,    -14,     15,      6,     37,    -43,     22,    -14,     23,     34,      0,     -2,     37,     34,     -3,    -29,     31,    -31,    -29,    -35,     42,      0,     32,     19,     44,      5,     28,      7,    -19,     -8,     19,    -17,    -17,     32,     32,    -15,     16,     10,     42,     36,    -38,      4,     33,    -29,     12,     27,      5,    -10,     10,     36,    -13,     -8,    -30,     53,    -16,     49,    -37,     35,     32,    -12,     50,    -42,     -1,    -24,     -7,    -48,    -29,    -22,    -22,    -17,     -5,     31,    -45,     36,      0,     45,      9,    -35,    -50,    -25,    -28,    -25,     13,     31,     34,    -35,    -22,     -2,    -38,      4,    -32,    -29,    -12,     37,     31,     -5,    -41,    -17,    -29,    -34,    -31,    -14,    -40,    -14,     21,    -10,      2,     35,     -7,    -38,     35,     35,    -30,      1,    -21,     11,    -45,    -32,      6,    -16,     -1,    -48,     -5,     29,     46,     39,     14,    -18,      1,    -41,     12,     35,     26,     -2,      2,      4,    -21,      1,      0,     -2,     42,     33,    -31,     12,     18,    -18,    -15,    -44,     42,    -26,     31,      9,     38,     49,     -5,    -38,    -32,      0,      5,     37,    -57,    -21,
           -31,    -18,     47,     44,     28,      1,     14,    -14,    -49,      7,     29,     58,    -34,     27,      1,    -33,     50,     -5,     45,    -38,    -18,    -12,     -6,     46,     -5,     46,     43,     22,    -20,    -20,    -49,     20,     44,    -38,     46,    -34,     28,     45,    -16,    -46,    -25,     39,      5,    -40,     37,     -7,    -39,    -28,    -14,    -13,      4,    -17,    -35,     -9,     21,     20,    -30,    -23,    -18,     61,      9,    -15,    -20,     22,     20,      0,     -8,      6,      1,     -7,      5,     30,    -33,      5,     24,     50,    -17,     13,      8,     11,     -2,     41,    -14,     49,      1,      5,    -37,    -32,    -14,    -10,     -3,    -43,     27,     13,      7,    -46,    -40,     28,     -8,     -7,    -29,    -15,     13,     45,     25,     17,     33,     -6,     41,     -5,    -45,      2,     28,     12,     42,      1,     35,    -12,     14,     45,      1,     -3,    -26,     22,    -34,    -40,     -5,     17,    -22,    -33,     32,     39,     25,     12,     35,      4,     37,    -30,     21,     48,     31,      1,     -2,      1,     13,     14,    -26,     -9,    -32,     36,    -40,      4,     -6,    -24,    -38,     37,     28,      6,     41,     27,     22,    -24,     35,      7,     40,     51,     16,    -38,     57,     35,    -24,     33,     11,     36,    -43,     23,    -29,    -28,     13,     48,     14,    -29,    -25,    -44,    -23,      7,     34,     31,    -37,    -10,     43,    -24,    -38,    -16,     17,    -20,     13,      1,    -41,    -29,      6,    -17,    -11,     49,     48,     44,    -28,      2,     31,    -18,    -20,     24,      4,     32,     22,     28,     -2,    -22,     20,    -15,     23,     -3,    -20,     -2,    -48,     34,     34,     10,    -41,    -47,     33,     16,    -37,     17,     15,     40,    -29,     48,    -28,     -7,     32,     27,    -10,    -43,     44,     -2,    -32,     -2,     39,    -41,     -6,     30,     36,     33,     19,     41,    -38,     59,      8,    -30,    -18,    -17,    -25,    -46,      2,     19,     -9,     23,    -16,    -19,     40,    -31,    -26,    -18,    -15,     11,     23,      7,     22,     16,     32,     11,    -33,     42,     -7,    -26,     36,    -48,    -18,     11,    -20,     30,     16,     -7,      5,    -31,    -41,      1,    -36,      2,    -19,     45,      8,     40,     44,    -40,     30,     -8,     19,     -9,      6,      0,     39,     23,    -40,    -17,     47,      4,    -32,    -13,     31,     -8,     13,    -41,     21,     17,      3,     45,     29,     -3,     -5,     34,      9,     28,    -15,    -11,    -45,    -20,    -39,    -10,    -41,     -1,    -40,     35,    -48,     40,    -41,      9,     -8,     38,     43,    -13,      0,     21,     -3,    -22,     37,     21,    -25,      5,     11,    -22,      8,     -7,     47,     31,     37,     19,      0,     -9,    -35,      6,     11,      6,     15,     14,    -16,     54,      1,    -13,    -17,    -23,    -19,    -48,      9,     -1,    -26,     36,     43,    -23,    -21,     16,     10,     17,     25,     45,     22,      7,    -23,      2,      2,    -30,     50,     -2,    -47,    -27,    -30,    -13,      8,     43,    -41,     42,     48,      2,    -40,    -47,    -30,    -11,     -3,    -31,    -12,    -24,      1,      5,     25,    -14,     30,     37,     10,      6,     54,     42,     35,    -51,     19,     22,     17,      0,      9,    -38,    -48,     25,    -37,    -50,     22,     41,     33,     40,     -8,     16,     33,    -19,     25,    -11,    -25,     17,    -16,     35,     46,    -47,     43,    -37,    -14,     22,    -11,     55,    -12,     28,    -28,    -32,    -18,     22,     27,     23,     51,      3,    -32,      4,     34,    -13,    -16,    -27,      5,     48,      8,      4,     43,    -10,    -43,     -3,      3,      0,    -37,     41,    -13,     36,     30,     -4,     51,     30,     23,    -16,     48,      0,      6,    -28,    -17,     20,    -33,     34,     24,    -25,
           -19,    -26,     23,    -45,     47,     24,     16,    -18,     15,     -3,     41,     31,      6,     31,     -9,    -20,      8,      3,    -22,    -26,      0,    -10,    -14,      7,     24,     48,    -34,      4,     53,      8,     29,     37,     56,      0,    -29,    -30,     25,    -41,     -1,     31,      0,    -17,     19,     -9,      2,      2,     31,     -9,     30,    -17,    -15,     38,     26,     32,      7,    -23,    -32,     58,    -28,     46,     11,    -12,    -57,    -21,     -1,    -23,    -18,    -29,     -7,     30,     -4,     18,    -36,     28,    -14,    -17,    -26,     15,    -18,      6,    -20,     54,    -10,     -3,    -12,     33,    -19,    -21,    -47,     24,    -37,    -40,     52,     52,      7,    -51,    -13,     27,    -38,     35,     31,    -36,     47,      0,    -10,     -9,    -12,     55,      8,     48,     26,      6,     -5,     38,      5,     12,     35,     -8,    -29,    -21,    -12,     16,    -24,      9,     24,     44,    -47,      7,     38,     37,    -28,     34,    -43,    -22,     41,     -7,    -49,     23,    -28,    -14,     10,     32,      1,    -38,     11,    -34,    -28,     24,     10,     26,    -21,    -49,     -2,     56,     27,     30,    -28,     14,    -36,    -26,    -38,      6,      9,    -12,     -1,     12,     17,     10,    -31,    -23,     -7,     30,     31,     40,     -1,     14,      2,    -10,      3,    -18,     45,     44,    -18,     17,     33,      8,     -5,     23,    -32,    -26,    -28,     19,    -19,     22,    -42,     43,    -31,     25,    -15,    -42,     15,      5,     38,    -37,    -25,     48,    -33,    -16,     34,      3,     37,     40,    -17,     44,    -33,    -23,      8,      4,    -42,     48,     58,    -36,    -47,      5,     13,    -29,     34,    -40,    -20,    -16,    -23,      1,    -45,     41,     40,    -27,     -9,     44,    -22,    -32,    -12,     28,    -18,     -9,    -17,     40,    -17,     13,      5,     31,    -36,    -22,     22,     29,     35,      5,    -22,     42,    -24,     42,     45,    -25,     17,    -26,     39,     -9,     -7,    -25,    -23,    -13,     -6,     26,     -7,      4,     43,     20,      0,    -12,     31,     39,      8,      7,     24,      3,     28,     28,      9,     36,     48,    -40,    -23,     59,    -25,     -9,     28,     46,     10,     32,    -22,    -46,     46,    -16,    -28,    -47,     65,    -26,     40,     43,     10,    -49,    -39,      4,    -32,     -4,     28,    -34,    -11,     33,     14,    -42,     30,    -38,     -6,    -14,     16,    -43,      2,    -21,    -18,    -18,     22,     -8,     -2,    -43,    -10,     -4,     13,     19,     32,    -15,    -47,    -10,     37,    -37,     39,    -26,      7,    -37,    -34,     -7,    -44,    -29,      8,    -19,     54,     40,     32,    -45,     32,    -16,    -23,     -7,     -9,      4,     45,     33,     31,    -48,     26,    -10,    -36,    -16,     -2,    -30,    -24,    -42,     20,     -3,      3,     -8,    -34,     10,    -53,    -41,    -28,     -9,     38,     44,    -20,    -39,    -42,    -27,      7,    -38,    -37,     44,     43,    -21,     34,    -11,     15,     24,    -32,     27,     28,      9,     20,    -15,    -42,    -24,     39,     17,    -36,     42,      5,    -31,     43,    -21,    -28,    -27,     56,    -28,     20,    -46,    -25,     52,     24,     -9,     19,    -13,     15,     -2,    -15,    -37,     20,     -7,     11,    -31,     37,     39,     22,    -10,    -38,     46,     15,    -23,      7,     17,     -4,     39,     -7,      3,     17,     26,     26,    -31,     -8,     -4,     -1,     38,     22,     -5,    -36,     33,     17,     22,     13,    -31,    -31,    -40,    -44,     16,     -6,    -18,     32,    -18,      9,     31,    -21,    -46,      2,    -17,      7,     55,      3,     11,     -2,     49,    -34,    -25,     15,    -12,     -7,    -34,     42,     26,     17,     25,    -39,     23,     -4,    -17,     -5,     47,    -32,    -36,    -14,    -40,     -4,     19,     32,     29,
           -28,    -21,    -15,    -32,     44,    -26,    -36,    -38,    -31,     18,    -33,     -4,    -11,     47,    -40,    -45,     13,     -2,    -26,    -22,     39,     44,    -27,    -27,     -9,     54,     -6,     39,      7,     15,     36,     17,     28,    -15,     26,    -26,     20,     12,    -23,    -11,      0,    -16,     42,     35,     -9,     16,    -29,     13,     47,    -12,     12,     11,     11,     41,    -28,    -19,     45,     -4,    -19,    -42,    -44,      8,    -42,    -29,     36,      0,     24,     17,     31,    -19,    -15,     41,     37,      6,    -12,     22,     20,     -3,    -59,     10,     -2,    -15,    -32,    -30,      6,    -52,    -28,     46,    -25,    -36,     -2,    -21,     54,    -26,     -9,    -42,    -23,    -12,    -35,     53,    -53,     40,    -44,    -14,     26,     42,    -46,    -28,    -20,    -40,    -15,    -47,    -29,     45,     14,     36,    -32,     15,     20,     41,    -37,      8,     31,     30,     -3,     -3,     10,    -14,     52,    -30,    -28,     12,     -9,    -29,    -50,    -10,    -20,     -4,    -24,     12,    -19,     26,    -18,      9,      5,     37,    -23,    -22,    -27,    -27,     44,     14,     10,    -28,    -36,     42,    -16,     45,     36,     16,     -6,    -35,     22,     20,     13,    -11,    -11,    -14,      1,     -3,      6,     44,     20,    -11,     12,    -41,      1,    -19,    -43,     48,     33,     30,     43,     51,    -17,    -10,     48,     17,     23,    -25,     19,      3,     52,     -9,      8,    -17,    -17,      3,    -18,     23,     28,    -27,     44,     28,     21,    -12,     -2,    -46,     50,     12,    -36,     11,     58,     32,    -19,     11,     17,    -16,      1,    -22,    -13,    -10,     41,      8,     28,      8,     -1,    -28,     15,    -13,     37,    -27,    -49,    -35,    -15,     43,    -31,    -31,    -23,    -21,     29,     32,    -24,    -10,    -12,      1,     49,     44,    -17,    -36,     33,     13,     27,     23,     22,     15,      8,     26,    -14,     20,    -31,     26,    -38,     15,      9,    -14,     32,    -45,    -30,     48,      9,     28,     18,    -15,     28,     13,    -19,     29,    -36,     15,    -19,      2,     -1,     23,    -12,    -21,      3,     31,     54,     34,     39,     -5,     -9,    -52,      8,    -12,     37,     15,     32,     -2,    -29,     -4,     20,     27,     10,     25,    -33,     12,     26,      1,    -31,     48,    -16,     52,    -34,     50,    -31,     39,    -19,      5,     22,     13,     31,      6,     54,     -8,     25,    -16,    -16,    -23,     62,     39,    -43,     48,    -15,      8,     66,    -12,    -14,     19,     26,    -42,    -45,     15,    -32,    -33,     -1,     -1,    -30,    -21,     12,     30,      2,     35,     28,    -14,    -39,     18,    -12,     -7,    -11,     41,     48,    -20,     39,     49,     -3,    -23,     16,     27,     -6,     22,     23,    -10,     52,      2,     -8,     44,     14,     13,      9,     34,    -21,    -10,     47,    -19,    -20,     53,     -4,      7,    -40,      1,     34,     36,    -48,     43,     49,    -17,    -39,    -41,     33,     -1,     21,     19,    -17,    -33,    -11,     13,    -11,     -8,     42,     48,    -40,     47,     41,    -38,     63,    -46,    -28,    -33,     14,    -14,      1,     17,     33,      7,     34,    -26,     40,    -22,      9,    -14,     41,     22,    -30,      3,     12,      8,     41,     28,     -9,     41,    -10,     40,    -40,    -16,     -2,    -38,     25,    -16,      0,      7,     14,    -36,     53,    -14,     30,     12,     29,     35,    -30,     24,     36,      1,     -5,    -27,     11,     19,     13,      7,     30,     44,     -6,    -26,    -10,     -4,     47,    -42,     29,     28,     38,     23,    -13,     41,     32,     16,     32,    -10,    -47,    -58,    -17,    -17,     30,    -43,     24,     -9,    -23,    -13,     10,    -47,     25,    -13,     27,      4,    -12,    -15,     11,     44,      1,     18,     12,    -49,
            15,     26,     -1,     28,      3,    -54,    -44,     -5,     -2,    -51,    -30,    -18,     35,    -21,     25,     20,     35,     26,     -9,    -24,      3,    -18,    -30,    -20,     34,    -15,     40,     16,    -32,     54,    -34,    -11,     52,    -33,    -11,     54,    -28,    -39,     25,     12,     26,    -62,     16,    -15,     59,      4,     31,     -3,     34,    -29,      3,     52,     18,    -36,      2,    -25,     25,    -15,    -31,     16,     46,     -7,      5,      1,     50,    -18,     24,    -28,    -46,     23,      2,    -19,    -33,     26,     35,     -2,     56,     22,     36,    -21,    -34,     36,    -28,    -14,      4,     22,     30,     -3,      4,     31,    -31,     -8,    -33,      8,     41,     22,      1,    -16,    -14,     26,    -34,    -18,     32,     32,     -1,    -19,    -42,     17,     58,     22,     35,    -15,    -41,     16,     18,    -53,     43,    -13,    -16,     40,     38,    -13,     48,     10,     25,     50,     16,    -33,      0,    -48,     41,     29,     -3,    -29,     38,     29,      3,      3,    -25,     41,     48,     36,     25,     27,     24,    -32,    -37,     38,     27,     21,     -9,      4,      7,     -1,     -9,     34,     38,     38,    -31,     28,    -17,    -20,     27,     15,      2,      2,     28,     27,     14,    -26,     -5,     54,     -6,     50,    -27,      9,     20,     14,    -41,    -36,      3,     50,     15,     -7,     51,    -20,     33,     48,    -21,    -38,    -42,     25,    -37,     26,     51,     -2,    -29,     53,     30,    -24,     13,    -19,     18,     -6,     24,    -28,    -42,    -34,     14,     14,    -19,     44,      0,     22,      5,     37,    -17,    -22,    -30,      7,     28,     54,    -26,    -54,    -11,    -26,     -2,    -21,     -8,    -26,     23,     42,    -11,    -27,      3,    -26,     23,     42,    -17,    -38,     -1,     25,      0,    -28,     14,     47,     49,     44,     27,     47,     32,    -41,     28,     20,     15,    -22,     30,    -21,    -10,    -43,    -15,     27,    -43,     -2,    -40,    -13,    -47,    -13,     45,     50,    -24,     20,    -33,    -27,    -25,      1,     -6,     12,    -26,    -27,    -31,    -22,    -12,     -1,     22,      9,    -13,     -7,     27,     26,     20,     18,     18,    -22,     28,     24,    -14,    -37,    -25,    -10,     57,    -28,     31,    -20,    -29,      9,     16,    -16,    -43,      9,    -39,    -14,     27,    -16,     26,     28,      0,      8,      4,    -48,     -7,     13,     46,      1,    -24,      1,    -11,    -32,     -7,     30,     23,    -11,     23,     25,     -5,    -21,     13,     -8,     -4,     13,    -24,    -32,      6,     -2,     22,    -60,    -15,      6,     38,     39,    -16,    -30,     47,      3,     44,     56,     -9,     10,      8,    -19,     10,    -15,    -13,     33,     28,    -36,     17,     -1,     51,    -22,     44,    -12,    -39,    -12,     29,      0,     20,     49,      3,    -14,     25,      7,    -58,     42,      5,      0,     -3,      1,    -39,      7,    -30,     21,    -26,    -15,     33,      3,      5,     31,    -57,    -24,    -17,     11,     -1,    -39,     49,     41,     -2,     -7,     -5,     -1,    -18,    -14,    -49,     27,     -5,    -28,      1,    -22,    -40,    -20,      0,     -3,     12,    -15,     37,    -20,    -42,     15,     51,    -36,    -48,     23,     59,     -8,     36,     33,     38,     16,      3,     22,     19,    -33,     12,    -59,    -35,    -47,    -38,     33,    -29,     -1,      3,    -44,     45,     17,     19,    -39,     -6,     13,     52,     42,      8,     20,     -2,     11,    -22,      0,      3,    -11,     24,     -4,     32,    -25,      8,    -48,     24,     24,      6,     21,     16,    -29,     45,    -42,     50,     50,    -50,    -17,    -11,     51,     30,    -58,     -8,     16,     27,     30,      3,     42,     46,    -16,     42,    -40,     35,      4,     17,     17,     44,      4,     18,    -26,      3,     18,      9,      7,
           -38,    -29,     28,    -11,     20,      6,     23,     45,     44,     -1,     16,    -21,     44,    -41,     51,     36,     15,    -26,      4,    -46,      8,    -22,     16,     28,     21,    -28,      2,    -20,      8,     38,    -31,    -28,      9,    -21,     33,    -44,    -38,    -20,      8,      6,     -2,     38,    -40,      7,     32,      2,    -27,    -22,     54,     19,      1,    -17,      5,      4,     -9,     34,     27,     11,    -45,    -39,     25,     42,     -7,    -13,    -13,    -10,    -33,    -37,     59,     -1,     -6,     -5,    -18,    -31,     -6,     -8,     49,     34,     13,    -40,    -36,    -38,     52,    -32,      5,     27,     30,     -8,     39,    -41,     26,     -3,    -33,    -33,    -80,     24,     -6,     15,     43,     39,     15,     -4,     -8,      7,     44,     -3,     13,     52,     -3,     15,     18,    -43,     20,    -22,     22,     33,      5,     47,     38,    -14,      0,    -20,     35,    -25,     -3,     31,    -32,    -39,     49,    -44,      2,     -6,    -22,    -46,      8,     -7,     -5,     31,     26,    -14,     30,      4,    -40,     41,     15,    -60,     33,    -50,     26,     13,     -1,     39,    -50,    -49,     21,    -21,    -18,    -17,     45,    -58,      6,     -3,     34,    -15,     14,    -53,    -17,     19,    -10,    -27,    -29,    -20,     10,    -17,    -12,    -31,     24,     38,    -41,    -22,     22,     -4,     -6,     32,    -36,    -32,    -15,    -27,      9,     16,    -26,    -50,    -44,     -9,    -29,    -21,    -29,     23,     47,      7,    -42,     -7,      3,      6,      0,    -40,     31,     38,    -39,     -8,     34,     -9,     41,     15,     26,    -37,    -23,     11,    -27,      3,      9,     18,     29,     16,    -27,     -9,    -11,     25,     26,    -47,     -7,     14,     40,    -10,     10,    -30,     24,    -25,      3,    -30,     -1,      0,    -22,    -44,    -23,     35,     24,    -14,     25,     -2,     40,    -33,    -36,     -2,     12,    -12,     -4,     42,      3,    -39,     26,     24,    -46,    -34,     35,     21,     11,     25,     17,      2,      6,     37,    -27,     -1,      5,      7,     30,    -14,    -24,     -2,     35,     34,     28,      7,    -15,      1,    -11,     34,    -20,    -20,    -40,     31,     28,     35,    -10,    -37,     59,     17,    -38,    -13,    -21,    -32,     28,    -30,    -24,     39,     10,     22,     11,     -5,     26,     17,     41,     19,      6,     33,     18,    -18,    -47,    -19,    -41,     35,     36,    -15,      9,     38,     11,    -26,    -28,    -33,     -5,    -11,     -2,    -38,    -17,    -18,     43,    -24,     34,     22,     30,      3,     26,    -37,     -2,      1,     42,     28,     -3,     30,    -53,     30,    -53,    -28,    -13,     20,     19,     43,     37,    -14,    -20,    -30,     11,    -43,    -49,     10,    -58,    -33,    -35,    -15,     11,     25,    -18,      2,    -30,    -37,    -46,    -48,     36,     10,      8,     41,     28,      1,    -24,     13,     23,     27,     15,     36,    -12,     -2,     36,     23,    -41,     29,    -14,    -31,     27,    -30,    -48,     12,    -18,     44,     14,     -2,    -29,      3,     -3,     26,     42,     53,     31,     -8,    -25,     42,    -27,     59,     10,     -9,     61,    -24,     29,     29,     28,    -28,    -33,     24,      9,    -23,     35,     12,      2,      3,    -35,    -13,    -21,    -44,     15,     47,     10,    -30,     32,    -30,     19,     30,     23,     10,     46,     36,     14,     27,      9,    -16,     43,     14,     31,      0,     51,     25,    -43,    -16,    -18,     17,    -38,     24,    -50,    -19,     19,     26,      6,      0,    -36,     -1,    -20,     16,     -2,     -8,    -12,    -27,      9,     19,      9,     37,    -20,     43,     20,    -44,     -4,    -14,      8,      6,     38,     37,     22,     25,     43,     -5,    -40,    -21,     18,    -20,    -39,     44,    -35,     17,     32,    -16,      3,    -13,     33,     36,
           -23,    -18,      1,      4,     24,     26,    -25,     18,     33,    -41,     31,     13,    -17,     15,    -18,    -13,     -4,    -35,     42,      2,     20,     -1,    -24,    -42,    -24,     13,     -8,    -45,    -40,     21,    -51,    -53,    -34,    -22,     25,     40,    -19,     28,      2,     37,     18,     -2,     12,     18,     40,    -39,     35,    -13,     30,     -2,    -37,     33,    -16,    -44,     14,    -19,     44,    -38,     32,     41,    -24,     -9,     17,    -33,    -39,     17,    -11,     32,      0,     20,     18,    -22,     28,     37,     -1,    -12,    -28,    -16,    -20,    -13,     19,     19,    -15,    -44,    -24,      8,    -34,     25,    -26,     41,     24,    -27,    -37,     35,     39,     43,    -18,     51,    -40,     -9,     14,     23,     -2,    -20,    -37,     -9,    -36,     26,     -4,     -2,     10,     34,     37,    -19,     15,     31,    -13,    -18,    -32,     35,    -19,      7,     10,    -30,     -5,    -27,     23,    -28,    -61,    -28,     -8,     16,     15,      1,     34,     16,     44,    -45,     34,     -1,    -31,    -26,    -22,     41,     14,    -16,     49,    -32,    -14,    -38,     31,      8,    -23,    -36,     29,    -38,     37,    -12,      5,    -38,    -23,    -12,      3,      6,      5,    -38,     40,      1,      0,    -37,    -37,     -5,     -7,     30,    -19,     -2,      4,    -19,    -31,     -2,    -46,     -6,    -25,     12,     17,    -35,    -22,    -21,    -42,     16,    -17,     18,    -14,     -8,    -22,      3,    -41,    -13,     34,    -13,     -7,    -32,    -31,      7,     28,     31,     -3,    -39,    -36,    -35,     -2,    -20,     22,    -28,    -10,    -20,     24,    -39,     52,    -40,     -3,     25,     15,     25,    -13,    -25,     27,    -20,     22,     56,     42,      1,     15,     31,    -35,     27,    -48,      4,    -13,     15,    -21,    -13,     43,     43,     30,    -49,     -5,     22,    -17,     21,    -25,    -30,      1,     38,    -49,    -46,     31,    -25,     17,    -45,    -35,    -30,     38,    -37,      0,     38,     18,    -27,     19,     27,    -11,    -50,     25,    -35,     37,    -35,    -22,     44,     46,    -21,     17,     -7,    -24,    -18,     10,    -11,     36,    -10,    -15,     13,    -17,     19,     -2,     32,    -22,     14,    -17,    -24,     13,     16,    -31,     27,    -32,      9,    -25,     30,     -6,    -14,     -8,    -45,      9,     -4,    -29,     11,     30,     19,    -12,    -29,    -45,     21,    -46,     25,    -44,    -10,    -20,      7,      0,     13,    -25,    -37,     -7,     14,    -26,    -32,     18,    -23,    -40,     31,     14,     -6,     20,     42,    -41,    -53,     16,    -11,      3,    -36,     42,     -9,     -1,     -3,     43,      6,     44,     45,     53,     48,     38,    -12,     25,    -31,     28,    -35,     -6,     22,    -19,    -21,     15,     17,    -29,     -4,    -21,    -20,     14,    -21,     31,    -30,    -39,     34,     19,    -23,      5,    -32,     36,     18,     -7,    -45,     34,      7,    -36,    -10,    -14,     18,    -17,     50,     25,    -38,    -41,     13,    -45,    -48,      2,     -3,     50,    -11,      8,      9,     23,    -40,     -1,    -41,    -42,    -29,     28,     -1,     17,     31,    -24,     20,     16,     43,    -36,     39,     14,    -21,     37,     44,    -20,     23,      8,     20,      9,    -17,      3,     53,    -13,    -50,     33,     -5,    -36,     36,      4,     -6,    -35,    -35,     30,    -14,     34,     29,     17,     25,    -40,     16,     11,     27,     26,    -55,    -17,    -22,     51,     30,    -28,     13,     18,    -43,    -31,     21,     44,     -2,     38,     24,     -8,    -10,     27,    -41,     52,     40,    -42,     43,    -21,     18,     21,    -16,      2,     15,    -32,     40,    -16,     10,     28,    -11,    -26,     42,     18,     20,     43,    -43,     47,     39,     21,    -29,     40,     24,    -32,    -41,    -28,    -47,     -1,      5,     20,      8,
           -13,     50,    -20,     40,    -13,     38,     11,    -48,      4,     26,    -36,     51,     22,    -18,     27,    -17,     17,      4,    -26,    -29,     14,     10,    -38,     35,      5,     12,    -13,     43,     27,     24,    -50,    -52,      6,    -17,     25,      6,    -20,    -31,     36,    -37,     -8,     43,    -17,    -20,    -15,     52,     47,     20,    -42,     38,    -40,     53,     30,     17,     15,    -22,     48,    -15,    -17,    -31,    -31,      9,    -26,    -15,      8,     16,    -30,     45,     41,    -23,     22,     34,     -8,    -40,    -32,     22,    -31,    -41,     -9,     42,    -33,     33,     32,     22,    -22,     17,    -13,    -15,    -38,     36,     12,    -13,    -28,     31,    -13,     -7,      3,     29,      1,     46,     64,     15,     15,      4,    -19,    -16,      5,     26,    -42,    -11,    -51,    -17,     50,     39,    -38,     13,    -35,    -15,     24,     25,    -22,    -38,    -23,    -11,     19,     28,     11,    -50,     37,     22,     24,     45,     -3,    -23,     20,    -21,    -42,     19,     -2,    -34,     21,    -22,    -32,     35,    -40,    -34,     42,    -10,     35,     27,    -18,    -38,     -8,      0,     26,     49,    -37,     29,     42,    -28,     -6,     43,    -31,    -39,     10,     17,    -44,      7,    -12,    -34,     30,    -27,     51,     45,     31,    -28,     -9,    -45,    -31,    -32,    -24,    -43,     44,     -4,    -41,     35,    -26,     15,     28,      9,    -32,     26,    -26,    -28,     -4,     29,    -21,    -19,     50,    -37,      9,    -11,     52,      2,     44,     16,     -4,    -19,    -13,     19,     30,     43,    -24,     25,    -20,     38,     -8,    -20,     33,    -36,     46,    -14,    -20,     14,    -41,     32,     26,    -17,    -43,    -16,     44,    -25,     18,     37,     -5,     52,     31,     29,     13,     -2,      4,    -18,     47,     27,    -20,     45,    -32,    -22,     44,     -2,     40,     21,    -25,    -20,     14,    -22,     12,    -39,    -30,      0,    -21,     21,    -21,    -34,     15,     17,     21,    -15,     47,     20,    -48,    -42,     30,    -43,    -39,     23,     38,    -21,     53,    -31,    -36,     27,    -28,    -42,    -31,     19,    -39,    -50,    -48,     -9,     20,     -9,    -40,     38,     42,    -16,     -7,     53,    -20,     57,     19,    -28,    -14,     25,     26,    -18,     18,    -35,     26,     48,     27,     30,    -10,    -32,     -1,      3,     -7,    -24,    -36,     -6,    -20,     27,     15,     28,     -2,     52,     18,    -19,     49,     25,      6,    -33,     37,     36,    -40,     -4,    -36,     48,    -14,    -33,     27,    -34,     42,      7,     19,    -26,     33,    -19,     14,      6,     24,    -10,     33,     13,    -25,     38,    -30,    -16,    -41,     27,     36,     14,     -9,     26,      6,    -19,    -13,     39,     45,     22,     44,     34,     46,    -24,    -16,     -8,    -12,    -26,    -41,      8,     48,      1,     27,      2,      1,     36,      0,     36,     12,     36,    -52,    -12,    -27,    -17,    -34,    -12,     12,     -7,     24,     -4,     51,     34,    -33,    -44,    -13,     -2,     50,     20,    -26,    -35,    -21,      9,     22,     10,      4,     27,    -22,     -4,    -27,     38,    -49,    -33,     33,    -50,     24,    -42,    -30,     -6,     11,     -8,      5,    -16,    -12,    -19,    -22,    -22,    -31,    -25,     -7,    -22,     -6,    -45,     13,     25,     -7,    -38,     18,    -46,    -19,    -37,    -40,     12,     47,     21,    -41,    -42,     13,     12,      4,    -29,    -13,    -23,    -32,     22,     17,     14,    -29,    -35,     46,    -22,    -12,     18,    -12,     -4,    -34,     31,    -21,     28,      6,    -32,    -12,     -3,     11,    -24,    -18,     31,    -12,    -25,     13,     -8,     21,      2,     46,    -15,     32,      4,     47,    -27,    -37,     36,     12,     40,    -33,    -17,    -19,     25,    -26,     15,    -18,     25,      5,     27,
           -18,    -43,     -5,    -13,    -44,    -45,     41,     -4,     41,    -15,      5,     23,    -12,    -21,     36,    -48,     41,    -22,     -9,     51,      2,    -26,      1,    -20,     40,     31,    -31,     51,     -3,     47,      3,    -10,     52,     -1,     44,    -17,     15,      2,    -13,     32,     24,     50,    -20,    -43,     21,     29,    -35,      4,     49,     28,    -22,     29,     14,     42,     47,    -46,    -11,     53,      0,    -24,     16,    -33,    -13,    -19,     16,    -13,      1,      4,     50,     11,     59,    -17,     63,     13,     22,    -49,    -43,    -38,    -15,    -51,     16,    -34,     26,    -31,    -23,     19,     18,     20,     24,    -36,     16,    -21,     27,    -22,     12,     12,    -17,     46,    -28,    -43,     22,     45,     37,     18,     40,     34,     36,      1,     31,    -10,     27,     35,     45,    -41,    -14,     27,     49,     18,      1,      0,    -26,     28,    -38,    -47,     26,     36,      1,    -16,    -16,    -33,     17,    -30,     18,     19,     -7,    -31,    -33,      5,      2,      5,     12,     -6,     41,    -20,     43,    -43,      1,    -21,    -12,     -6,    -27,    -51,     45,      2,      0,      1,    -31,     47,      3,    -10,     21,     27,     25,    -36,     -1,     26,    -32,    -47,    -28,    -35,     60,      1,     11,     28,    -11,    -33,     29,    -26,     17,     12,    -25,      1,      4,    -20,     31,    -16,    -36,     -3,     15,     25,    -24,    -53,     27,      4,     46,     32,     18,     25,     40,     29,     49,     18,     36,    -45,     39,      7,    -34,    -28,    -19,     27,    -31,    -28,    -34,     13,     27,    -23,     -2,     30,     47,    -43,    -18,    -27,     -6,     -7,    -12,    -38,    -29,     -7,    -24,     -8,    -33,     12,    -10,     -4,     50,    -32,     12,    -21,     -1,     28,      2,      1,     49,     19,     30,     30,     14,     21,     17,    -37,    -22,     15,     11,     -3,     19,     12,     39,     19,     -8,     -8,     20,     17,     14,      8,    -37,     49,    -17,    -29,     15,     -7,     -2,     29,     14,    -29,     43,     14,     40,      7,    -20,     24,    -19,     33,    -21,    -36,      1,     -2,     19,    -16,    -33,     39,    -14,      5,    -16,    -30,    -13,    -29,     10,    -23,      0,      8,     22,    -13,    -25,    -27,     14,     -3,     49,     28,     30,    -29,     25,      2,     18,     -1,     25,    -17,     26,    -20,     23,     -5,     -6,     -6,    -29,     51,      5,     22,      5,     35,    -43,     29,    -13,    -38,    -28,    -12,    -21,    -36,     21,    -40,    -13,     43,     29,     21,      0,    -19,    -20,     -5,     -8,    -17,     29,     -9,     14,     24,     -6,     46,     -1,     15,     53,     -7,     35,    -29,    -39,      4,     12,     -6,      6,     -7,     15,    -35,     43,     33,     15,    -17,     18,     46,    -32,     -2,     35,     -4,    -24,     16,    -34,    -14,    -34,    -37,    -34,    -39,    -37,     53,    -26,    -27,    -23,    -35,    -37,    -34,     27,     -6,      2,    -39,    -14,     10,    -33,     39,     47,     46,     14,    -44,    -12,     -4,      4,    -36,     13,      7,     30,     28,    -31,     22,     28,      2,     -2,    -29,     36,     44,      9,     22,     39,     48,      7,     24,     52,    -23,     28,    -44,     56,     20,     -2,     -6,     10,    -41,     37,     37,    -38,    -43,      8,     -8,    -44,    -13,    -21,    -31,    -13,     54,    -28,     18,     36,     13,     19,      3,    -32,     42,     30,     46,     51,     46,    -16,    -42,    -21,      7,     14,     16,     14,    -30,     -7,     44,    -40,     56,     38,     31,     12,     46,     -3,     20,    -10,    -22,    -14,    -27,     32,    -33,    -21,     26,     -3,     36,     47,      6,    -34,     51,     45,     29,    -33,     39,     43,    -20,    -27,     17,     -5,     -1,    -41,      8,     45,    -46,    -25,    -11,    -54,     -8,
           -21,    -25,    -10,     -4,     47,     37,    -16,    -23,     51,      5,    -19,     -6,      5,     37,    -44,    -51,      2,     23,     11,    -34,    -42,     43,    -22,    -21,    -11,      2,    -20,    -35,      5,    -17,    -28,     11,     12,     41,    -11,    -30,      0,     21,    -37,     25,      2,    -16,     38,     13,     33,     31,     36,     21,     14,     18,    -11,     10,      4,     44,     -6,      8,      6,    -25,    -40,    -12,    -28,     33,    -19,     -9,    -32,     52,    -27,    -26,    -14,     52,     20,    -20,     31,     -8,    -36,    -24,    -29,      5,    -49,    -37,     45,    -36,     27,     33,    -14,     13,     32,     16,    -44,    -13,     22,      9,    -28,     -1,    -32,    -47,      2,    -33,     53,    -15,    -35,     31,    -18,    -20,     35,     -2,     -7,    -30,     39,     12,     36,    -19,      3,    -14,    -29,     13,     44,     12,     -1,     51,    -44,     31,     -7,     -1,      8,    -13,      6,     19,     11,     17,     50,     26,     45,    -39,    -23,     30,     38,      5,     -9,    -29,    -30,    -27,      4,    -14,    -19,     -1,    -20,     28,    -32,    -43,     25,    -35,     14,     38,     34,    -37,     -5,     11,    -13,    -19,     14,    -30,    -11,    -10,     29,     15,    -12,     27,     36,     23,     42,    -17,     44,     27,     35,    -30,     58,    -16,      5,      5,     -1,     17,     22,     11,     -8,     23,    -40,     36,    -30,     29,      5,    -27,     -8,     41,     22,    -31,     25,     14,    -17,    -35,     25,     39,     36,    -51,     32,     -2,    -53,      1,    -19,     45,    -28,     -5,    -29,     48,     38,      6,     32,     49,     35,     28,    -32,      2,      0,      6,     45,     48,    -34,     10,     -7,    -27,    -46,    -19,    -33,    -39,    -15,      8,    -16,    -35,     35,     40,     28,     14,     -7,     24,     48,    -34,    -36,     41,     42,     46,     38,     11,     38,    -30,     20,     19,     -2,    -14,    -26,    -36,      6,    -30,     48,    -37,    -28,     -3,    -16,     22,    -43,     32,     18,     33,     17,      1,     11,     -5,    -36,     24,      0,     -8,     46,     -4,     45,     38,    -21,     19,    -25,     37,     31,     23,      8,    -35,      2,     26,     26,    -25,     21,     24,    -30,      2,     43,     20,    -46,    -23,    -10,     20,     30,     -2,     10,    -18,    -29,     48,    -34,     20,    -42,     57,    -16,     20,    -34,     -2,     12,     42,     18,     18,     36,     19,    -20,    -36,    -22,     24,     57,    -33,     30,     13,     19,    -54,     55,    -25,    -21,    -19,     20,    -34,     20,     -4,    -22,    -35,    -38,    -16,     55,    -42,    -61,    -11,     11,     -8,     34,    -37,     43,      1,     47,      0,    -42,     34,     -8,    -20,      6,    -37,     30,     10,     36,     -8,     21,     29,     36,    -26,     44,     42,    -39,    -45,     24,    -49,    -15,     28,     -7,     10,    -11,    -25,    -11,    -27,    -27,     24,    -36,    -30,    -36,     12,      7,     -7,    -23,     15,      4,    -23,     -8,    -15,      6,     46,    -19,     17,     20,    -42,     47,     51,     16,     40,    -21,     35,     16,    -46,     13,      0,     34,    -37,     26,     10,    -30,    -18,     18,     46,    -19,     26,     -8,     22,     51,    -41,     36,      4,    -23,     -5,    -19,    -16,     -1,     11,     39,     29,     43,    -13,    -19,    -37,    -43,    -18,     18,    -21,     23,     14,     30,      8,    -18,    -19,     46,     -9,      4,    -48,     45,     46,      1,      9,     -1,    -10,     21,    -25,     27,      6,      1,    -34,    -37,     -5,     45,     45,     44,    -34,    -14,     -6,     -3,    -33,     -9,     -6,    -47,      8,     43,     27,    -34,     26,     15,     26,    -41,    -24,     36,    -33,     53,    -12,     -2,     11,     16,    -25,     48,     23,     22,     42,      6,     12,     39,     33,    -30,      9,
           -35,    -49,     34,     45,    -48,     23,    -20,    -43,    -49,      8,     39,      4,     46,     50,    -36,      3,    -14,    -12,     20,    -17,    -30,    -10,    -16,     36,     12,     43,    -41,    -20,    -32,    -21,     -7,    -46,     50,    -28,    -27,    -28,     29,     18,    -32,      5,     37,    -32,     20,     23,     29,     21,    -10,     31,     17,     11,    -18,    -16,     33,     -9,     11,    -13,    -11,    -25,    -16,    -21,     26,    -13,    -45,     28,      1,     32,    -25,    -13,     12,     -9,    -40,    -28,     -5,     18,     37,      0,     52,     37,     13,     36,      5,    -22,     25,    -20,     -8,      5,     30,      6,     47,     31,     14,      1,    -10,     48,    -23,      6,     17,     19,      9,    -13,     46,     -6,      3,     57,    -59,    -30,    -34,      1,     -6,     26,     34,     -7,      3,    -24,      6,    -27,    -33,      6,    -30,     12,    -31,     44,     48,     15,     -1,     39,     -8,    -39,     30,     29,     -8,    -21,     15,    -12,     28,     -2,    -52,    -21,    -46,    -41,     -6,    -10,    -28,     13,     37,     18,     24,     26,     33,    -44,      3,     -8,    -42,    -49,      9,    -40,     29,    -10,     15,     27,    -16,    -37,     13,    -45,    -34,    -20,    -14,      1,     21,    -27,    -16,     22,    -10,     22,      9,      2,    -29,     -9,     18,    -21,     36,     -8,     13,     22,     -2,      5,     40,     40,    -12,     16,     35,     -2,     12,     17,      6,    -35,     42,      6,     48,    -40,    -15,    -31,     28,    -24,     -4,     40,     11,    -11,     -2,    -16,    -31,    -32,     21,      9,     40,     49,     -7,     34,     27,     -1,    -17,    -10,    -15,     16,     -8,     -8,     -1,    -13,    -51,    -31,      2,      7,    -53,    -14,    -22,     48,     14,     -9,    -41,     -5,     39,     31,    -40,     36,     17,    -38,    -14,     41,    -14,    -42,    -34,     21,    -23,    -19,    -20,    -35,     44,     43,     -8,    -28,    -40,    -14,    -42,    -29,    -25,    -12,    -47,     45,     17,     -5,    -13,    -20,    -29,     46,     20,     42,     13,     51,     -5,     25,     47,      3,     -1,    -20,    -20,     -1,     43,     13,     42,    -39,    -39,     36,    -38,    -17,     24,    -11,      0,     31,      5,    -38,    -33,    -23,     -8,     33,    -13,     10,    -18,    -43,    -12,     38,     43,     24,      6,    -13,    -32,     11,      9,    -33,    -50,     -9,    -21,    -11,    -30,    -32,     10,     23,     -1,     58,     -9,    -32,     -3,     36,     31,     38,     14,    -49,     21,    -29,     10,     36,     -1,     37,    -39,     36,    -52,    -20,     -1,     52,     -9,     30,     15,     26,     11,     16,      0,      9,     18,    -42,      4,      2,     31,     12,    -48,     29,    -19,    -36,      3,     18,    -24,    -18,    -38,      7,     41,     25,      8,     25,     33,     15,    -16,    -26,      9,    -20,     11,    -12,    -12,     22,     38,     14,      1,    -21,    -15,     34,     -8,    -36,     27,      7,     -8,    -14,    -23,     19,     37,    -24,     40,     13,    -41,    -23,     36,    -13,     21,     10,    -25,     13,     20,      8,     21,    -18,     16,    -39,     20,    -22,    -12,      4,    -11,     23,     41,     -6,      2,     -9,      7,      0,    -46,    -35,      5,    -51,     26,     44,     18,     33,    -41,    -13,     28,     17,    -37,    -46,      4,     -6,    -11,      2,     20,     -8,      3,    -29,     30,    -12,     40,    -18,     15,     50,    -38,      5,    -25,    -29,     35,    -38,     12,    -41,     19,     34,     23,    -36,     17,    -40,    -26,     36,    -38,    -20,     13,     18,    -43,     32,     17,    -15,     27,     50,    -49,    -21,     39,     49,    -11,    -19,    -40,      7,    -32,     34,    -10,    -16,     41,      9,    -34,    -29,     28,      2,    -19,     27,     45,      8,     -5,      2,    -25,     37,    -10,    -45,
